digraph Tree {
node [shape=box] ;
0 [label="Sex=male <= 0.5\nentropy = 0.961\nsamples = 891\nvalue = [549, 342]"] ;
1 [label="Pclass <= 2.5\nentropy = 0.824\nsamples = 314\nvalue = [81, 233]"] ;
0 -> 1 [labeldistance=2.5, labelangle=45, headlabel="True"] ;
2 [label="Fare <= 28.856\nentropy = 0.299\nsamples = 170\nvalue = [9, 161]"] ;
1 -> 2 ;
3 [label="Fare <= 28.231\nentropy = 0.469\nsamples = 70\nvalue = [7, 63]"] ;
2 -> 3 ;
4 [label="Age <= 23.5\nentropy = 0.426\nsamples = 69\nvalue = [6, 63]"] ;
3 -> 4 ;
5 [label="entropy = 0.0\nsamples = 15\nvalue = [0, 15]"] ;
4 -> 5 ;
6 [label="Age <= 27.5\nentropy = 0.503\nsamples = 54\nvalue = [6, 48]"] ;
4 -> 6 ;
7 [label="Age <= 25.5\nentropy = 0.845\nsamples = 11\nvalue = [3, 8]"] ;
6 -> 7 ;
8 [label="Fare <= 13.75\nentropy = 0.592\nsamples = 7\nvalue = [1, 6]"] ;
7 -> 8 ;
9 [label="entropy = 1.0\nsamples = 2\nvalue = [1, 1]"] ;
8 -> 9 ;
10 [label="entropy = 0.0\nsamples = 5\nvalue = [0, 5]"] ;
8 -> 10 ;
11 [label="Fare <= 17.429\nentropy = 1.0\nsamples = 4\nvalue = [2, 2]"] ;
7 -> 11 ;
12 [label="entropy = 0.0\nsamples = 2\nvalue = [0, 2]"] ;
11 -> 12 ;
13 [label="entropy = 0.0\nsamples = 2\nvalue = [2, 0]"] ;
11 -> 13 ;
14 [label="Age <= 37.0\nentropy = 0.365\nsamples = 43\nvalue = [3, 40]"] ;
6 -> 14 ;
15 [label="entropy = 0.0\nsamples = 24\nvalue = [0, 24]"] ;
14 -> 15 ;
16 [label="Age <= 39.0\nentropy = 0.629\nsamples = 19\nvalue = [3, 16]"] ;
14 -> 16 ;
17 [label="entropy = 0.0\nsamples = 1\nvalue = [1, 0]"] ;
16 -> 17 ;
18 [label="Age <= 56.0\nentropy = 0.503\nsamples = 18\nvalue = [2, 16]"] ;
16 -> 18 ;
19 [label="SibSp <= 0.5\nentropy = 0.337\nsamples = 16\nvalue = [1, 15]"] ;
18 -> 19 ;
20 [label="entropy = 0.0\nsamples = 12\nvalue = [0, 12]"] ;
19 -> 20 ;
21 [label="Age <= 44.5\nentropy = 0.811\nsamples = 4\nvalue = [1, 3]"] ;
19 -> 21 ;
22 [label="Age <= 43.0\nentropy = 1.0\nsamples = 2\nvalue = [1, 1]"] ;
21 -> 22 ;
23 [label="entropy = 0.0\nsamples = 1\nvalue = [0, 1]"] ;
22 -> 23 ;
24 [label="entropy = 0.0\nsamples = 1\nvalue = [1, 0]"] ;
22 -> 24 ;
25 [label="entropy = 0.0\nsamples = 2\nvalue = [0, 2]"] ;
21 -> 25 ;
26 [label="Pclass <= 1.5\nentropy = 1.0\nsamples = 2\nvalue = [1, 1]"] ;
18 -> 26 ;
27 [label="entropy = 0.0\nsamples = 1\nvalue = [0, 1]"] ;
26 -> 27 ;
28 [label="entropy = 0.0\nsamples = 1\nvalue = [1, 0]"] ;
26 -> 28 ;
29 [label="entropy = 0.0\nsamples = 1\nvalue = [1, 0]"] ;
3 -> 29 ;
30 [label="Age <= 2.5\nentropy = 0.141\nsamples = 100\nvalue = [2, 98]"] ;
2 -> 30 ;
31 [label="entropy = 0.0\nsamples = 1\nvalue = [1, 0]"] ;
30 -> 31 ;
32 [label="Parch <= 1.5\nentropy = 0.081\nsamples = 99\nvalue = [1, 98]"] ;
30 -> 32 ;
33 [label="entropy = 0.0\nsamples = 84\nvalue = [0, 84]"] ;
32 -> 33 ;
34 [label="Age <= 24.5\nentropy = 0.353\nsamples = 15\nvalue = [1, 14]"] ;
32 -> 34 ;
35 [label="entropy = 0.0\nsamples = 10\nvalue = [0, 10]"] ;
34 -> 35 ;
36 [label="Age <= 28.0\nentropy = 0.722\nsamples = 5\nvalue = [1, 4]"] ;
34 -> 36 ;
37 [label="entropy = 0.0\nsamples = 1\nvalue = [1, 0]"] ;
36 -> 37 ;
38 [label="entropy = 0.0\nsamples = 4\nvalue = [0, 4]"] ;
36 -> 38 ;
39 [label="Fare <= 23.35\nentropy = 1.0\nsamples = 144\nvalue = [72, 72]"] ;
1 -> 39 ;
40 [label="Age <= 36.5\nentropy = 0.977\nsamples = 117\nvalue = [48, 69]"] ;
39 -> 40 ;
41 [label="Embarked=S <= 0.5\nentropy = 0.959\nsamples = 110\nvalue = [42, 68]"] ;
40 -> 41 ;
42 [label="Fare <= 15.621\nentropy = 0.86\nsamples = 53\nvalue = [15, 38]"] ;
41 -> 42 ;
43 [label="Fare <= 13.935\nentropy = 0.918\nsamples = 45\nvalue = [15, 30]"] ;
42 -> 43 ;
44 [label="Age <= 17.0\nentropy = 0.758\nsamples = 32\nvalue = [7, 25]"] ;
43 -> 44 ;
45 [label="entropy = 0.0\nsamples = 7\nvalue = [0, 7]"] ;
44 -> 45 ;
46 [label="Parch <= 1.0\nentropy = 0.855\nsamples = 25\nvalue = [7, 18]"] ;
44 -> 46 ;
47 [label="Age <= 18.5\nentropy = 0.811\nsamples = 24\nvalue = [6, 18]"] ;
46 -> 47 ;
48 [label="entropy = 0.0\nsamples = 1\nvalue = [1, 0]"] ;
47 -> 48 ;
49 [label="Age <= 30.1\nentropy = 0.755\nsamples = 23\nvalue = [5, 18]"] ;
47 -> 49 ;
50 [label="Fare <= 8.008\nentropy = 0.684\nsamples = 22\nvalue = [4, 18]"] ;
49 -> 50 ;
51 [label="Fare <= 7.769\nentropy = 0.592\nsamples = 21\nvalue = [3, 18]"] ;
50 -> 51 ;
52 [label="Age <= 21.5\nentropy = 0.722\nsamples = 15\nvalue = [3, 12]"] ;
51 -> 52 ;
53 [label="entropy = 0.0\nsamples = 1\nvalue = [1, 0]"] ;
52 -> 53 ;
54 [label="Fare <= 7.681\nentropy = 0.592\nsamples = 14\nvalue = [2, 12]"] ;
52 -> 54 ;
55 [label="Embarked=C <= 0.5\nentropy = 0.918\nsamples = 3\nvalue = [1, 2]"] ;
54 -> 55 ;
56 [label="entropy = 0.0\nsamples = 1\nvalue = [1, 0]"] ;
55 -> 56 ;
57 [label="entropy = 0.0\nsamples = 2\nvalue = [0, 2]"] ;
55 -> 57 ;
58 [label="Fare <= 7.744\nentropy = 0.439\nsamples = 11\nvalue = [1, 10]"] ;
54 -> 58 ;
59 [label="entropy = 0.0\nsamples = 2\nvalue = [0, 2]"] ;
58 -> 59 ;
60 [label="Age <= 25.85\nentropy = 0.503\nsamples = 9\nvalue = [1, 8]"] ;
58 -> 60 ;
61 [label="entropy = 0.0\nsamples = 1\nvalue = [0, 1]"] ;
60 -> 61 ;
62 [label="entropy = 0.544\nsamples = 8\nvalue = [1, 7]"] ;
60 -> 62 ;
63 [label="entropy = 0.0\nsamples = 6\nvalue = [0, 6]"] ;
51 -> 63 ;
64 [label="entropy = 0.0\nsamples = 1\nvalue = [1, 0]"] ;
50 -> 64 ;
65 [label="entropy = 0.0\nsamples = 1\nvalue = [1, 0]"] ;
49 -> 65 ;
66 [label="entropy = 0.0\nsamples = 1\nvalue = [1, 0]"] ;
46 -> 66 ;
67 [label="Embarked=Q <= 0.5\nentropy = 0.961\nsamples = 13\nvalue = [8, 5]"] ;
43 -> 67 ;
68 [label="Age <= 29.35\nentropy = 0.764\nsamples = 9\nvalue = [7, 2]"] ;
67 -> 68 ;
69 [label="Parch <= 1.5\nentropy = 0.918\nsamples = 6\nvalue = [4, 2]"] ;
68 -> 69 ;
70 [label="Age <= 14.75\nentropy = 0.722\nsamples = 5\nvalue = [4, 1]"] ;
69 -> 70 ;
71 [label="entropy = 0.0\nsamples = 2\nvalue = [2, 0]"] ;
70 -> 71 ;
72 [label="Age <= 16.0\nentropy = 0.918\nsamples = 3\nvalue = [2, 1]"] ;
70 -> 72 ;
73 [label="entropy = 0.0\nsamples = 1\nvalue = [0, 1]"] ;
72 -> 73 ;
74 [label="entropy = 0.0\nsamples = 2\nvalue = [2, 0]"] ;
72 -> 74 ;
75 [label="entropy = 0.0\nsamples = 1\nvalue = [0, 1]"] ;
69 -> 75 ;
76 [label="entropy = 0.0\nsamples = 3\nvalue = [3, 0]"] ;
68 -> 76 ;
77 [label="Parch <= 0.5\nentropy = 0.811\nsamples = 4\nvalue = [1, 3]"] ;
67 -> 77 ;
78 [label="entropy = 0.0\nsamples = 3\nvalue = [0, 3]"] ;
77 -> 78 ;
79 [label="entropy = 0.0\nsamples = 1\nvalue = [1, 0]"] ;
77 -> 79 ;
80 [label="entropy = 0.0\nsamples = 8\nvalue = [0, 8]"] ;
42 -> 80 ;
81 [label="Age <= 32.0\nentropy = 0.998\nsamples = 57\nvalue = [27, 30]"] ;
41 -> 81 ;
82 [label="Fare <= 7.762\nentropy = 1.0\nsamples = 54\nvalue = [27, 27]"] ;
81 -> 82 ;
83 [label="Age <= 26.35\nentropy = 0.65\nsamples = 6\nvalue = [1, 5]"] ;
82 -> 83 ;
84 [label="entropy = 0.0\nsamples = 5\nvalue = [0, 5]"] ;
83 -> 84 ;
85 [label="entropy = 0.0\nsamples = 1\nvalue = [1, 0]"] ;
83 -> 85 ;
86 [label="Fare <= 10.825\nentropy = 0.995\nsamples = 48\nvalue = [26, 22]"] ;
82 -> 86 ;
87 [label="Fare <= 10.152\nentropy = 0.918\nsamples = 27\nvalue = [18, 9]"] ;
86 -> 87 ;
88 [label="Parch <= 0.5\nentropy = 0.954\nsamples = 24\nvalue = [15, 9]"] ;
87 -> 88 ;
89 [label="Fare <= 9.84\nentropy = 0.902\nsamples = 22\nvalue = [15, 7]"] ;
88 -> 89 ;
90 [label="Fare <= 8.767\nentropy = 0.863\nsamples = 21\nvalue = [15, 6]"] ;
89 -> 90 ;
91 [label="Fare <= 8.673\nentropy = 0.937\nsamples = 17\nvalue = [11, 6]"] ;
90 -> 91 ;
92 [label="Age <= 27.5\nentropy = 0.896\nsamples = 16\nvalue = [11, 5]"] ;
91 -> 92 ;
93 [label="Age <= 25.5\nentropy = 0.994\nsamples = 11\nvalue = [6, 5]"] ;
92 -> 93 ;
94 [label="Age <= 22.5\nentropy = 0.811\nsamples = 8\nvalue = [6, 2]"] ;
93 -> 94 ;
95 [label="Age <= 18.5\nentropy = 0.971\nsamples = 5\nvalue = [3, 2]"] ;
94 -> 95 ;
96 [label="entropy = 0.0\nsamples = 2\nvalue = [2, 0]"] ;
95 -> 96 ;
97 [label="Fare <= 8.258\nentropy = 0.918\nsamples = 3\nvalue = [1, 2]"] ;
95 -> 97 ;
98 [label="entropy = 0.0\nsamples = 2\nvalue = [0, 2]"] ;
97 -> 98 ;
99 [label="entropy = 0.0\nsamples = 1\nvalue = [1, 0]"] ;
97 -> 99 ;
100 [label="entropy = 0.0\nsamples = 3\nvalue = [3, 0]"] ;
94 -> 100 ;
101 [label="entropy = 0.0\nsamples = 3\nvalue = [0, 3]"] ;
93 -> 101 ;
102 [label="entropy = 0.0\nsamples = 5\nvalue = [5, 0]"] ;
92 -> 102 ;
103 [label="entropy = 0.0\nsamples = 1\nvalue = [0, 1]"] ;
91 -> 103 ;
104 [label="entropy = 0.0\nsamples = 4\nvalue = [4, 0]"] ;
90 -> 104 ;
105 [label="entropy = 0.0\nsamples = 1\nvalue = [0, 1]"] ;
89 -> 105 ;
106 [label="entropy = 0.0\nsamples = 2\nvalue = [0, 2]"] ;
88 -> 106 ;
107 [label="entropy = 0.0\nsamples = 3\nvalue = [3, 0]"] ;
87 -> 107 ;
108 [label="Fare <= 17.25\nentropy = 0.959\nsamples = 21\nvalue = [8, 13]"] ;
86 -> 108 ;
109 [label="SibSp <= 0.5\nentropy = 0.619\nsamples = 13\nvalue = [2, 11]"] ;
108 -> 109 ;
110 [label="entropy = 0.0\nsamples = 6\nvalue = [0, 6]"] ;
109 -> 110 ;
111 [label="Age <= 25.0\nentropy = 0.863\nsamples = 7\nvalue = [2, 5]"] ;
109 -> 111 ;
112 [label="entropy = 0.0\nsamples = 3\nvalue = [0, 3]"] ;
111 -> 112 ;
113 [label="Age <= 28.85\nentropy = 1.0\nsamples = 4\nvalue = [2, 2]"] ;
111 -> 113 ;
114 [label="entropy = 0.0\nsamples = 2\nvalue = [2, 0]"] ;
113 -> 114 ;
115 [label="entropy = 0.0\nsamples = 2\nvalue = [0, 2]"] ;
113 -> 115 ;
116 [label="Fare <= 21.55\nentropy = 0.811\nsamples = 8\nvalue = [6, 2]"] ;
108 -> 116 ;
117 [label="Age <= 30.0\nentropy = 0.592\nsamples = 7\nvalue = [6, 1]"] ;
116 -> 117 ;
118 [label="entropy = 0.0\nsamples = 5\nvalue = [5, 0]"] ;
117 -> 118 ;
119 [label="Fare <= 19.263\nentropy = 1.0\nsamples = 2\nvalue = [1, 1]"] ;
117 -> 119 ;
120 [label="entropy = 0.0\nsamples = 1\nvalue = [1, 0]"] ;
119 -> 120 ;
121 [label="entropy = 0.0\nsamples = 1\nvalue = [0, 1]"] ;
119 -> 121 ;
122 [label="entropy = 0.0\nsamples = 1\nvalue = [0, 1]"] ;
116 -> 122 ;
123 [label="entropy = 0.0\nsamples = 3\nvalue = [0, 3]"] ;
81 -> 123 ;
124 [label="Age <= 55.0\nentropy = 0.592\nsamples = 7\nvalue = [6, 1]"] ;
40 -> 124 ;
125 [label="entropy = 0.0\nsamples = 6\nvalue = [6, 0]"] ;
124 -> 125 ;
126 [label="entropy = 0.0\nsamples = 1\nvalue = [0, 1]"] ;
124 -> 126 ;
127 [label="Parch <= 0.5\nentropy = 0.503\nsamples = 27\nvalue = [24, 3]"] ;
39 -> 127 ;
128 [label="entropy = 0.0\nsamples = 1\nvalue = [0, 1]"] ;
127 -> 128 ;
129 [label="Fare <= 31.331\nentropy = 0.391\nsamples = 26\nvalue = [24, 2]"] ;
127 -> 129 ;
130 [label="entropy = 0.0\nsamples = 15\nvalue = [15, 0]"] ;
129 -> 130 ;
131 [label="Fare <= 32.881\nentropy = 0.684\nsamples = 11\nvalue = [9, 2]"] ;
129 -> 131 ;
132 [label="entropy = 0.0\nsamples = 2\nvalue = [0, 2]"] ;
131 -> 132 ;
133 [label="entropy = 0.0\nsamples = 9\nvalue = [9, 0]"] ;
131 -> 133 ;
134 [label="Fare <= 26.269\nentropy = 0.699\nsamples = 577\nvalue = [468, 109]"] ;
0 -> 134 [labeldistance=2.5, labelangle=-45, headlabel="False"] ;
135 [label="Age <= 13.5\nentropy = 0.558\nsamples = 415\nvalue = [361, 54]"] ;
134 -> 135 ;
136 [label="SibSp <= 2.0\nentropy = 0.567\nsamples = 15\nvalue = [2, 13]"] ;
135 -> 136 ;
137 [label="Age <= 10.0\nentropy = 0.371\nsamples = 14\nvalue = [1, 13]"] ;
136 -> 137 ;
138 [label="entropy = 0.0\nsamples = 12\nvalue = [0, 12]"] ;
137 -> 138 ;
139 [label="Age <= 11.5\nentropy = 1.0\nsamples = 2\nvalue = [1, 1]"] ;
137 -> 139 ;
140 [label="entropy = 0.0\nsamples = 1\nvalue = [1, 0]"] ;
139 -> 140 ;
141 [label="entropy = 0.0\nsamples = 1\nvalue = [0, 1]"] ;
139 -> 141 ;
142 [label="entropy = 0.0\nsamples = 1\nvalue = [1, 0]"] ;
136 -> 142 ;
143 [label="Embarked=C <= 0.5\nentropy = 0.477\nsamples = 400\nvalue = [359, 41]"] ;
135 -> 143 ;
144 [label="Fare <= 13.25\nentropy = 0.437\nsamples = 355\nvalue = [323, 32]"] ;
143 -> 144 ;
145 [label="Fare <= 7.91\nentropy = 0.479\nsamples = 291\nvalue = [261, 30]"] ;
144 -> 145 ;
146 [label="Fare <= 7.865\nentropy = 0.353\nsamples = 150\nvalue = [140, 10]"] ;
145 -> 146 ;
147 [label="Age <= 32.5\nentropy = 0.424\nsamples = 116\nvalue = [106, 10]"] ;
146 -> 147 ;
148 [label="Age <= 20.75\nentropy = 0.507\nsamples = 89\nvalue = [79, 10]"] ;
147 -> 148 ;
149 [label="entropy = 0.0\nsamples = 16\nvalue = [16, 0]"] ;
148 -> 149 ;
150 [label="Fare <= 7.762\nentropy = 0.576\nsamples = 73\nvalue = [63, 10]"] ;
148 -> 150 ;
151 [label="Age <= 29.35\nentropy = 0.451\nsamples = 53\nvalue = [48, 5]"] ;
150 -> 151 ;
152 [label="Fare <= 7.01\nentropy = 0.742\nsamples = 19\nvalue = [15, 4]"] ;
151 -> 152 ;
153 [label="entropy = 0.0\nsamples = 2\nvalue = [0, 2]"] ;
152 -> 153 ;
154 [label="Fare <= 7.746\nentropy = 0.523\nsamples = 17\nvalue = [15, 2]"] ;
152 -> 154 ;
155 [label="Fare <= 7.196\nentropy = 0.337\nsamples = 16\nvalue = [15, 1]"] ;
154 -> 155 ;
156 [label="Fare <= 7.133\nentropy = 0.65\nsamples = 6\nvalue = [5, 1]"] ;
155 -> 156 ;
157 [label="entropy = 0.0\nsamples = 5\nvalue = [5, 0]"] ;
156 -> 157 ;
158 [label="entropy = 0.0\nsamples = 1\nvalue = [0, 1]"] ;
156 -> 158 ;
159 [label="entropy = 0.0\nsamples = 10\nvalue = [10, 0]"] ;
155 -> 159 ;
160 [label="entropy = 0.0\nsamples = 1\nvalue = [0, 1]"] ;
154 -> 160 ;
161 [label="Fare <= 7.744\nentropy = 0.191\nsamples = 34\nvalue = [33, 1]"] ;
151 -> 161 ;
162 [label="entropy = 0.0\nsamples = 21\nvalue = [21, 0]"] ;
161 -> 162 ;
163 [label="Age <= 30.35\nentropy = 0.391\nsamples = 13\nvalue = [12, 1]"] ;
161 -> 163 ;
164 [label="SibSp <= 0.5\nentropy = 0.439\nsamples = 11\nvalue = [10, 1]"] ;
163 -> 164 ;
165 [label="entropy = 0.469\nsamples = 10\nvalue = [9, 1]"] ;
164 -> 165 ;
166 [label="entropy = 0.0\nsamples = 1\nvalue = [1, 0]"] ;
164 -> 166 ;
167 [label="entropy = 0.0\nsamples = 2\nvalue = [2, 0]"] ;
163 -> 167 ;
168 [label="Age <= 31.5\nentropy = 0.811\nsamples = 20\nvalue = [15, 5]"] ;
150 -> 168 ;
169 [label="Fare <= 7.798\nentropy = 0.742\nsamples = 19\nvalue = [15, 4]"] ;
168 -> 169 ;
170 [label="Age <= 30.35\nentropy = 0.89\nsamples = 13\nvalue = [9, 4]"] ;
169 -> 170 ;
171 [label="SibSp <= 0.5\nentropy = 0.918\nsamples = 12\nvalue = [8, 4]"] ;
170 -> 171 ;
172 [label="Fare <= 7.785\nentropy = 0.881\nsamples = 10\nvalue = [7, 3]"] ;
171 -> 172 ;
173 [label="Age <= 29.35\nentropy = 0.722\nsamples = 5\nvalue = [4, 1]"] ;
172 -> 173 ;
174 [label="entropy = 0.0\nsamples = 3\nvalue = [3, 0]"] ;
173 -> 174 ;
175 [label="entropy = 1.0\nsamples = 2\nvalue = [1, 1]"] ;
173 -> 175 ;
176 [label="Age <= 21.5\nentropy = 0.971\nsamples = 5\nvalue = [3, 2]"] ;
172 -> 176 ;
177 [label="entropy = 0.0\nsamples = 1\nvalue = [0, 1]"] ;
176 -> 177 ;
178 [label="Age <= 25.5\nentropy = 0.811\nsamples = 4\nvalue = [3, 1]"] ;
176 -> 178 ;
179 [label="entropy = 0.0\nsamples = 2\nvalue = [2, 0]"] ;
178 -> 179 ;
180 [label="Age <= 27.5\nentropy = 1.0\nsamples = 2\nvalue = [1, 1]"] ;
178 -> 180 ;
181 [label="entropy = 0.0\nsamples = 1\nvalue = [0, 1]"] ;
180 -> 181 ;
182 [label="entropy = 0.0\nsamples = 1\nvalue = [1, 0]"] ;
180 -> 182 ;
183 [label="entropy = 1.0\nsamples = 2\nvalue = [1, 1]"] ;
171 -> 183 ;
184 [label="entropy = 0.0\nsamples = 1\nvalue = [1, 0]"] ;
170 -> 184 ;
185 [label="entropy = 0.0\nsamples = 6\nvalue = [6, 0]"] ;
169 -> 185 ;
186 [label="entropy = 0.0\nsamples = 1\nvalue = [0, 1]"] ;
168 -> 186 ;
187 [label="entropy = 0.0\nsamples = 27\nvalue = [27, 0]"] ;
147 -> 187 ;
188 [label="entropy = 0.0\nsamples = 34\nvalue = [34, 0]"] ;
146 -> 188 ;
189 [label="Fare <= 7.988\nentropy = 0.589\nsamples = 141\nvalue = [121, 20]"] ;
145 -> 189 ;
190 [label="SibSp <= 1.5\nentropy = 0.961\nsamples = 13\nvalue = [8, 5]"] ;
189 -> 190 ;
191 [label="SibSp <= 0.5\nentropy = 0.994\nsamples = 11\nvalue = [6, 5]"] ;
190 -> 191 ;
192 [label="Age <= 26.0\nentropy = 0.971\nsamples = 10\nvalue = [6, 4]"] ;
191 -> 192 ;
193 [label="entropy = 0.0\nsamples = 3\nvalue = [3, 0]"] ;
192 -> 193 ;
194 [label="Age <= 31.5\nentropy = 0.985\nsamples = 7\nvalue = [3, 4]"] ;
192 -> 194 ;
195 [label="entropy = 0.0\nsamples = 1\nvalue = [0, 1]"] ;
194 -> 195 ;
196 [label="Age <= 41.5\nentropy = 1.0\nsamples = 6\nvalue = [3, 3]"] ;
194 -> 196 ;
197 [label="Age <= 35.5\nentropy = 0.971\nsamples = 5\nvalue = [3, 2]"] ;
196 -> 197 ;
198 [label="entropy = 0.918\nsamples = 3\nvalue = [2, 1]"] ;
197 -> 198 ;
199 [label="entropy = 1.0\nsamples = 2\nvalue = [1, 1]"] ;
197 -> 199 ;
200 [label="entropy = 0.0\nsamples = 1\nvalue = [0, 1]"] ;
196 -> 200 ;
201 [label="entropy = 0.0\nsamples = 1\nvalue = [0, 1]"] ;
191 -> 201 ;
202 [label="entropy = 0.0\nsamples = 2\nvalue = [2, 0]"] ;
190 -> 202 ;
203 [label="Age <= 19.5\nentropy = 0.521\nsamples = 128\nvalue = [113, 15]"] ;
189 -> 203 ;
204 [label="Fare <= 8.104\nentropy = 0.722\nsamples = 20\nvalue = [16, 4]"] ;
203 -> 204 ;
205 [label="Age <= 17.0\nentropy = 0.971\nsamples = 5\nvalue = [2, 3]"] ;
204 -> 205 ;
206 [label="entropy = 1.0\nsamples = 2\nvalue = [1, 1]"] ;
205 -> 206 ;
207 [label="Age <= 18.5\nentropy = 0.918\nsamples = 3\nvalue = [1, 2]"] ;
205 -> 207 ;
208 [label="entropy = 0.0\nsamples = 1\nvalue = [0, 1]"] ;
207 -> 208 ;
209 [label="entropy = 1.0\nsamples = 2\nvalue = [1, 1]"] ;
207 -> 209 ;
210 [label="Age <= 18.5\nentropy = 0.353\nsamples = 15\nvalue = [14, 1]"] ;
204 -> 210 ;
211 [label="entropy = 0.0\nsamples = 10\nvalue = [10, 0]"] ;
210 -> 211 ;
212 [label="Pclass <= 2.5\nentropy = 0.722\nsamples = 5\nvalue = [4, 1]"] ;
210 -> 212 ;
213 [label="Fare <= 11.75\nentropy = 0.918\nsamples = 3\nvalue = [2, 1]"] ;
212 -> 213 ;
214 [label="entropy = 1.0\nsamples = 2\nvalue = [1, 1]"] ;
213 -> 214 ;
215 [label="entropy = 0.0\nsamples = 1\nvalue = [1, 0]"] ;
213 -> 215 ;
216 [label="entropy = 0.0\nsamples = 2\nvalue = [2, 0]"] ;
212 -> 216 ;
217 [label="Age <= 26.5\nentropy = 0.475\nsamples = 108\nvalue = [97, 11]"] ;
203 -> 217 ;
218 [label="entropy = 0.0\nsamples = 31\nvalue = [31, 0]"] ;
217 -> 218 ;
219 [label="Fare <= 8.081\nentropy = 0.592\nsamples = 77\nvalue = [66, 11]"] ;
217 -> 219 ;
220 [label="Age <= 31.25\nentropy = 0.371\nsamples = 28\nvalue = [26, 2]"] ;
219 -> 220 ;
221 [label="entropy = 0.0\nsamples = 16\nvalue = [16, 0]"] ;
220 -> 221 ;
222 [label="Age <= 33.0\nentropy = 0.65\nsamples = 12\nvalue = [10, 2]"] ;
220 -> 222 ;
223 [label="entropy = 0.0\nsamples = 1\nvalue = [0, 1]"] ;
222 -> 223 ;
224 [label="Age <= 44.5\nentropy = 0.439\nsamples = 11\nvalue = [10, 1]"] ;
222 -> 224 ;
225 [label="entropy = 0.0\nsamples = 7\nvalue = [7, 0]"] ;
224 -> 225 ;
226 [label="Age <= 47.5\nentropy = 0.811\nsamples = 4\nvalue = [3, 1]"] ;
224 -> 226 ;
227 [label="entropy = 0.0\nsamples = 1\nvalue = [0, 1]"] ;
226 -> 227 ;
228 [label="entropy = 0.0\nsamples = 3\nvalue = [3, 0]"] ;
226 -> 228 ;
229 [label="Fare <= 8.238\nentropy = 0.688\nsamples = 49\nvalue = [40, 9]"] ;
219 -> 229 ;
230 [label="entropy = 0.0\nsamples = 1\nvalue = [0, 1]"] ;
229 -> 230 ;
231 [label="Fare <= 8.658\nentropy = 0.65\nsamples = 48\nvalue = [40, 8]"] ;
229 -> 231 ;
232 [label="entropy = 0.0\nsamples = 4\nvalue = [4, 0]"] ;
231 -> 232 ;
233 [label="Age <= 31.5\nentropy = 0.684\nsamples = 44\nvalue = [36, 8]"] ;
231 -> 233 ;
234 [label="Pclass <= 2.5\nentropy = 0.811\nsamples = 20\nvalue = [15, 5]"] ;
233 -> 234 ;
235 [label="Age <= 29.35\nentropy = 0.65\nsamples = 12\nvalue = [10, 2]"] ;
234 -> 235 ;
236 [label="entropy = 0.0\nsamples = 5\nvalue = [5, 0]"] ;
235 -> 236 ;
237 [label="Age <= 29.85\nentropy = 0.863\nsamples = 7\nvalue = [5, 2]"] ;
235 -> 237 ;
238 [label="entropy = 0.0\nsamples = 1\nvalue = [0, 1]"] ;
237 -> 238 ;
239 [label="Age <= 30.5\nentropy = 0.65\nsamples = 6\nvalue = [5, 1]"] ;
237 -> 239 ;
240 [label="entropy = 0.0\nsamples = 4\nvalue = [4, 0]"] ;
239 -> 240 ;
241 [label="Fare <= 11.75\nentropy = 1.0\nsamples = 2\nvalue = [1, 1]"] ;
239 -> 241 ;
242 [label="entropy = 0.0\nsamples = 1\nvalue = [1, 0]"] ;
241 -> 242 ;
243 [label="entropy = 0.0\nsamples = 1\nvalue = [0, 1]"] ;
241 -> 243 ;
244 [label="Age <= 27.5\nentropy = 0.954\nsamples = 8\nvalue = [5, 3]"] ;
234 -> 244 ;
245 [label="entropy = 0.0\nsamples = 1\nvalue = [0, 1]"] ;
244 -> 245 ;
246 [label="Age <= 29.85\nentropy = 0.863\nsamples = 7\nvalue = [5, 2]"] ;
244 -> 246 ;
247 [label="Age <= 28.5\nentropy = 0.65\nsamples = 6\nvalue = [5, 1]"] ;
246 -> 247 ;
248 [label="entropy = 0.0\nsamples = 2\nvalue = [2, 0]"] ;
247 -> 248 ;
249 [label="Age <= 29.35\nentropy = 0.811\nsamples = 4\nvalue = [3, 1]"] ;
247 -> 249 ;
250 [label="Fare <= 9.492\nentropy = 1.0\nsamples = 2\nvalue = [1, 1]"] ;
249 -> 250 ;
251 [label="entropy = 0.0\nsamples = 1\nvalue = [1, 0]"] ;
250 -> 251 ;
252 [label="entropy = 0.0\nsamples = 1\nvalue = [0, 1]"] ;
250 -> 252 ;
253 [label="entropy = 0.0\nsamples = 2\nvalue = [2, 0]"] ;
249 -> 253 ;
254 [label="entropy = 0.0\nsamples = 1\nvalue = [0, 1]"] ;
246 -> 254 ;
255 [label="Fare <= 10.0\nentropy = 0.544\nsamples = 24\nvalue = [21, 3]"] ;
233 -> 255 ;
256 [label="entropy = 0.0\nsamples = 4\nvalue = [4, 0]"] ;
255 -> 256 ;
257 [label="Age <= 59.5\nentropy = 0.61\nsamples = 20\nvalue = [17, 3]"] ;
255 -> 257 ;
258 [label="Fare <= 12.762\nentropy = 0.523\nsamples = 17\nvalue = [15, 2]"] ;
257 -> 258 ;
259 [label="entropy = 0.0\nsamples = 6\nvalue = [6, 0]"] ;
258 -> 259 ;
260 [label="Age <= 45.0\nentropy = 0.684\nsamples = 11\nvalue = [9, 2]"] ;
258 -> 260 ;
261 [label="Age <= 40.5\nentropy = 0.811\nsamples = 8\nvalue = [6, 2]"] ;
260 -> 261 ;
262 [label="Age <= 35.0\nentropy = 0.65\nsamples = 6\nvalue = [5, 1]"] ;
261 -> 262 ;
263 [label="entropy = 0.918\nsamples = 3\nvalue = [2, 1]"] ;
262 -> 263 ;
264 [label="entropy = 0.0\nsamples = 3\nvalue = [3, 0]"] ;
262 -> 264 ;
265 [label="entropy = 1.0\nsamples = 2\nvalue = [1, 1]"] ;
261 -> 265 ;
266 [label="entropy = 0.0\nsamples = 3\nvalue = [3, 0]"] ;
260 -> 266 ;
267 [label="Age <= 64.0\nentropy = 0.918\nsamples = 3\nvalue = [2, 1]"] ;
257 -> 267 ;
268 [label="entropy = 0.0\nsamples = 1\nvalue = [0, 1]"] ;
267 -> 268 ;
269 [label="entropy = 0.0\nsamples = 2\nvalue = [2, 0]"] ;
267 -> 269 ;
270 [label="Fare <= 22.888\nentropy = 0.201\nsamples = 64\nvalue = [62, 2]"] ;
144 -> 270 ;
271 [label="entropy = 0.0\nsamples = 37\nvalue = [37, 0]"] ;
270 -> 271 ;
272 [label="Fare <= 23.35\nentropy = 0.381\nsamples = 27\nvalue = [25, 2]"] ;
270 -> 272 ;
273 [label="entropy = 0.0\nsamples = 1\nvalue = [0, 1]"] ;
272 -> 273 ;
274 [label="Age <= 33.0\nentropy = 0.235\nsamples = 26\nvalue = [25, 1]"] ;
272 -> 274 ;
275 [label="Age <= 31.5\nentropy = 0.414\nsamples = 12\nvalue = [11, 1]"] ;
274 -> 275 ;
276 [label="entropy = 0.0\nsamples = 11\nvalue = [11, 0]"] ;
275 -> 276 ;
277 [label="entropy = 0.0\nsamples = 1\nvalue = [0, 1]"] ;
275 -> 277 ;
278 [label="entropy = 0.0\nsamples = 14\nvalue = [14, 0]"] ;
274 -> 278 ;
279 [label="Fare <= 15.148\nentropy = 0.722\nsamples = 45\nvalue = [36, 9]"] ;
143 -> 279 ;
280 [label="Age <= 29.85\nentropy = 0.552\nsamples = 39\nvalue = [34, 5]"] ;
279 -> 280 ;
281 [label="Fare <= 14.158\nentropy = 0.65\nsamples = 30\nvalue = [25, 5]"] ;
280 -> 281 ;
282 [label="Pclass <= 2.5\nentropy = 0.722\nsamples = 25\nvalue = [20, 5]"] ;
281 -> 282 ;
283 [label="entropy = 0.0\nsamples = 1\nvalue = [0, 1]"] ;
282 -> 283 ;
284 [label="Age <= 29.35\nentropy = 0.65\nsamples = 24\nvalue = [20, 4]"] ;
282 -> 284 ;
285 [label="Age <= 28.75\nentropy = 0.881\nsamples = 10\nvalue = [7, 3]"] ;
284 -> 285 ;
286 [label="Age <= 22.75\nentropy = 0.764\nsamples = 9\nvalue = [7, 2]"] ;
285 -> 286 ;
287 [label="Age <= 18.5\nentropy = 0.918\nsamples = 6\nvalue = [4, 2]"] ;
286 -> 287 ;
288 [label="entropy = 0.0\nsamples = 2\nvalue = [2, 0]"] ;
287 -> 288 ;
289 [label="Fare <= 5.619\nentropy = 1.0\nsamples = 4\nvalue = [2, 2]"] ;
287 -> 289 ;
290 [label="entropy = 0.0\nsamples = 1\nvalue = [1, 0]"] ;
289 -> 290 ;
291 [label="Age <= 21.0\nentropy = 0.918\nsamples = 3\nvalue = [1, 2]"] ;
289 -> 291 ;
292 [label="entropy = 0.0\nsamples = 1\nvalue = [0, 1]"] ;
291 -> 292 ;
293 [label="Fare <= 7.227\nentropy = 1.0\nsamples = 2\nvalue = [1, 1]"] ;
291 -> 293 ;
294 [label="entropy = 0.0\nsamples = 1\nvalue = [0, 1]"] ;
293 -> 294 ;
295 [label="entropy = 0.0\nsamples = 1\nvalue = [1, 0]"] ;
293 -> 295 ;
296 [label="entropy = 0.0\nsamples = 3\nvalue = [3, 0]"] ;
286 -> 296 ;
297 [label="entropy = 0.0\nsamples = 1\nvalue = [0, 1]"] ;
285 -> 297 ;
298 [label="Fare <= 7.227\nentropy = 0.371\nsamples = 14\nvalue = [13, 1]"] ;
284 -> 298 ;
299 [label="entropy = 0.0\nsamples = 5\nvalue = [5, 0]"] ;
298 -> 299 ;
300 [label="Fare <= 7.562\nentropy = 0.503\nsamples = 9\nvalue = [8, 1]"] ;
298 -> 300 ;
301 [label="entropy = 0.65\nsamples = 6\nvalue = [5, 1]"] ;
300 -> 301 ;
302 [label="entropy = 0.0\nsamples = 3\nvalue = [3, 0]"] ;
300 -> 302 ;
303 [label="entropy = 0.0\nsamples = 5\nvalue = [5, 0]"] ;
281 -> 303 ;
304 [label="entropy = 0.0\nsamples = 9\nvalue = [9, 0]"] ;
280 -> 304 ;
305 [label="Fare <= 20.233\nentropy = 0.918\nsamples = 6\nvalue = [2, 4]"] ;
279 -> 305 ;
306 [label="entropy = 0.0\nsamples = 4\nvalue = [0, 4]"] ;
305 -> 306 ;
307 [label="entropy = 0.0\nsamples = 2\nvalue = [2, 0]"] ;
305 -> 307 ;
308 [label="SibSp <= 2.5\nentropy = 0.924\nsamples = 162\nvalue = [107, 55]"] ;
134 -> 308 ;
309 [label="Age <= 13.5\nentropy = 0.964\nsamples = 139\nvalue = [85, 54]"] ;
308 -> 309 ;
310 [label="entropy = 0.0\nsamples = 7\nvalue = [0, 7]"] ;
309 -> 310 ;
311 [label="Fare <= 26.469\nentropy = 0.939\nsamples = 132\nvalue = [85, 47]"] ;
309 -> 311 ;
312 [label="entropy = 0.0\nsamples = 4\nvalue = [0, 4]"] ;
311 -> 312 ;
313 [label="Age <= 53.0\nentropy = 0.921\nsamples = 128\nvalue = [85, 43]"] ;
311 -> 313 ;
314 [label="Fare <= 26.775\nentropy = 0.956\nsamples = 106\nvalue = [66, 40]"] ;
313 -> 314 ;
315 [label="Age <= 46.5\nentropy = 0.764\nsamples = 9\nvalue = [2, 7]"] ;
314 -> 315 ;
316 [label="Age <= 28.85\nentropy = 0.863\nsamples = 7\nvalue = [2, 5]"] ;
315 -> 316 ;
317 [label="entropy = 0.0\nsamples = 1\nvalue = [0, 1]"] ;
316 -> 317 ;
318 [label="Embarked=C <= 0.5\nentropy = 0.918\nsamples = 6\nvalue = [2, 4]"] ;
316 -> 318 ;
319 [label="Age <= 31.85\nentropy = 0.971\nsamples = 5\nvalue = [2, 3]"] ;
318 -> 319 ;
320 [label="entropy = 1.0\nsamples = 2\nvalue = [1, 1]"] ;
319 -> 320 ;
321 [label="Age <= 39.5\nentropy = 0.918\nsamples = 3\nvalue = [1, 2]"] ;
319 -> 321 ;
322 [label="entropy = 0.0\nsamples = 1\nvalue = [0, 1]"] ;
321 -> 322 ;
323 [label="entropy = 1.0\nsamples = 2\nvalue = [1, 1]"] ;
321 -> 323 ;
324 [label="entropy = 0.0\nsamples = 1\nvalue = [0, 1]"] ;
318 -> 324 ;
325 [label="entropy = 0.0\nsamples = 2\nvalue = [0, 2]"] ;
315 -> 325 ;
326 [label="Fare <= 29.1\nentropy = 0.925\nsamples = 97\nvalue = [64, 33]"] ;
314 -> 326 ;
327 [label="entropy = 0.0\nsamples = 9\nvalue = [9, 0]"] ;
326 -> 327 ;
328 [label="Fare <= 30.598\nentropy = 0.954\nsamples = 88\nvalue = [55, 33]"] ;
326 -> 328 ;
329 [label="Fare <= 30.285\nentropy = 0.881\nsamples = 10\nvalue = [3, 7]"] ;
328 -> 329 ;
330 [label="Age <= 31.1\nentropy = 1.0\nsamples = 6\nvalue = [3, 3]"] ;
329 -> 330 ;
331 [label="Embarked=C <= 0.5\nentropy = 0.811\nsamples = 4\nvalue = [1, 3]"] ;
330 -> 331 ;
332 [label="Age <= 29.35\nentropy = 1.0\nsamples = 2\nvalue = [1, 1]"] ;
331 -> 332 ;
333 [label="entropy = 0.0\nsamples = 1\nvalue = [1, 0]"] ;
332 -> 333 ;
334 [label="entropy = 0.0\nsamples = 1\nvalue = [0, 1]"] ;
332 -> 334 ;
335 [label="entropy = 0.0\nsamples = 2\nvalue = [0, 2]"] ;
331 -> 335 ;
336 [label="entropy = 0.0\nsamples = 2\nvalue = [2, 0]"] ;
330 -> 336 ;
337 [label="entropy = 0.0\nsamples = 4\nvalue = [0, 4]"] ;
329 -> 337 ;
338 [label="Fare <= 52.277\nentropy = 0.918\nsamples = 78\nvalue = [52, 26]"] ;
328 -> 338 ;
339 [label="Age <= 47.5\nentropy = 0.619\nsamples = 26\nvalue = [22, 4]"] ;
338 -> 339 ;
340 [label="Fare <= 36.125\nentropy = 0.529\nsamples = 25\nvalue = [22, 3]"] ;
339 -> 340 ;
341 [label="Fare <= 35.25\nentropy = 0.845\nsamples = 11\nvalue = [8, 3]"] ;
340 -> 341 ;
342 [label="Age <= 39.5\nentropy = 0.544\nsamples = 8\nvalue = [7, 1]"] ;
341 -> 342 ;
343 [label="entropy = 0.0\nsamples = 6\nvalue = [6, 0]"] ;
342 -> 343 ;
344 [label="Age <= 43.5\nentropy = 1.0\nsamples = 2\nvalue = [1, 1]"] ;
342 -> 344 ;
345 [label="entropy = 0.0\nsamples = 1\nvalue = [0, 1]"] ;
344 -> 345 ;
346 [label="entropy = 0.0\nsamples = 1\nvalue = [1, 0]"] ;
344 -> 346 ;
347 [label="Age <= 37.35\nentropy = 0.918\nsamples = 3\nvalue = [1, 2]"] ;
341 -> 347 ;
348 [label="entropy = 0.0\nsamples = 2\nvalue = [0, 2]"] ;
347 -> 348 ;
349 [label="entropy = 0.0\nsamples = 1\nvalue = [1, 0]"] ;
347 -> 349 ;
350 [label="entropy = 0.0\nsamples = 14\nvalue = [14, 0]"] ;
340 -> 350 ;
351 [label="entropy = 0.0\nsamples = 1\nvalue = [0, 1]"] ;
339 -> 351 ;
352 [label="Fare <= 59.088\nentropy = 0.983\nsamples = 52\nvalue = [30, 22]"] ;
338 -> 352 ;
353 [label="Age <= 22.0\nentropy = 0.896\nsamples = 16\nvalue = [5, 11]"] ;
352 -> 353 ;
354 [label="entropy = 0.0\nsamples = 1\nvalue = [1, 0]"] ;
353 -> 354 ;
355 [label="Age <= 49.5\nentropy = 0.837\nsamples = 15\nvalue = [4, 11]"] ;
353 -> 355 ;
356 [label="Age <= 27.5\nentropy = 0.75\nsamples = 14\nvalue = [3, 11]"] ;
355 -> 356 ;
357 [label="entropy = 0.0\nsamples = 3\nvalue = [0, 3]"] ;
356 -> 357 ;
358 [label="Age <= 28.85\nentropy = 0.845\nsamples = 11\nvalue = [3, 8]"] ;
356 -> 358 ;
359 [label="entropy = 0.0\nsamples = 1\nvalue = [1, 0]"] ;
358 -> 359 ;
360 [label="Fare <= 52.827\nentropy = 0.722\nsamples = 10\nvalue = [2, 8]"] ;
358 -> 360 ;
361 [label="entropy = 0.0\nsamples = 2\nvalue = [0, 2]"] ;
360 -> 361 ;
362 [label="Fare <= 54.798\nentropy = 0.811\nsamples = 8\nvalue = [2, 6]"] ;
360 -> 362 ;
363 [label="entropy = 0.0\nsamples = 1\nvalue = [1, 0]"] ;
362 -> 363 ;
364 [label="Age <= 30.35\nentropy = 0.592\nsamples = 7\nvalue = [1, 6]"] ;
362 -> 364 ;
365 [label="entropy = 0.918\nsamples = 3\nvalue = [1, 2]"] ;
364 -> 365 ;
366 [label="entropy = 0.0\nsamples = 4\nvalue = [0, 4]"] ;
364 -> 366 ;
367 [label="entropy = 0.0\nsamples = 1\nvalue = [1, 0]"] ;
355 -> 367 ;
368 [label="Fare <= 379.925\nentropy = 0.888\nsamples = 36\nvalue = [25, 11]"] ;
352 -> 368 ;
369 [label="Fare <= 134.642\nentropy = 0.834\nsamples = 34\nvalue = [25, 9]"] ;
368 -> 369 ;
370 [label="Fare <= 86.29\nentropy = 0.906\nsamples = 28\nvalue = [19, 9]"] ;
369 -> 370 ;
371 [label="Embarked=C <= 0.5\nentropy = 0.65\nsamples = 18\nvalue = [15, 3]"] ;
370 -> 371 ;
372 [label="entropy = 0.0\nsamples = 11\nvalue = [11, 0]"] ;
371 -> 372 ;
373 [label="Fare <= 77.965\nentropy = 0.985\nsamples = 7\nvalue = [4, 3]"] ;
371 -> 373 ;
374 [label="Age <= 49.5\nentropy = 0.811\nsamples = 4\nvalue = [1, 3]"] ;
373 -> 374 ;
375 [label="entropy = 0.0\nsamples = 3\nvalue = [0, 3]"] ;
374 -> 375 ;
376 [label="entropy = 0.0\nsamples = 1\nvalue = [1, 0]"] ;
374 -> 376 ;
377 [label="entropy = 0.0\nsamples = 3\nvalue = [3, 0]"] ;
373 -> 377 ;
378 [label="Embarked=S <= 0.5\nentropy = 0.971\nsamples = 10\nvalue = [4, 6]"] ;
370 -> 378 ;
379 [label="SibSp <= 0.5\nentropy = 0.985\nsamples = 7\nvalue = [4, 3]"] ;
378 -> 379 ;
380 [label="entropy = 0.0\nsamples = 1\nvalue = [0, 1]"] ;
379 -> 380 ;
381 [label="Fare <= 98.752\nentropy = 0.918\nsamples = 6\nvalue = [4, 2]"] ;
379 -> 381 ;
382 [label="SibSp <= 1.5\nentropy = 0.918\nsamples = 3\nvalue = [1, 2]"] ;
381 -> 382 ;
383 [label="entropy = 0.0\nsamples = 2\nvalue = [0, 2]"] ;
382 -> 383 ;
384 [label="entropy = 0.0\nsamples = 1\nvalue = [1, 0]"] ;
382 -> 384 ;
385 [label="entropy = 0.0\nsamples = 3\nvalue = [3, 0]"] ;
381 -> 385 ;
386 [label="entropy = 0.0\nsamples = 3\nvalue = [0, 3]"] ;
378 -> 386 ;
387 [label="entropy = 0.0\nsamples = 6\nvalue = [6, 0]"] ;
369 -> 387 ;
388 [label="entropy = 0.0\nsamples = 2\nvalue = [0, 2]"] ;
368 -> 388 ;
389 [label="Age <= 75.5\nentropy = 0.575\nsamples = 22\nvalue = [19, 3]"] ;
313 -> 389 ;
390 [label="Embarked=C <= 0.5\nentropy = 0.454\nsamples = 21\nvalue = [19, 2]"] ;
389 -> 390 ;
391 [label="entropy = 0.0\nsamples = 13\nvalue = [13, 0]"] ;
390 -> 391 ;
392 [label="SibSp <= 0.5\nentropy = 0.811\nsamples = 8\nvalue = [6, 2]"] ;
390 -> 392 ;
393 [label="Age <= 57.0\nentropy = 0.592\nsamples = 7\nvalue = [6, 1]"] ;
392 -> 393 ;
394 [label="Fare <= 33.098\nentropy = 1.0\nsamples = 2\nvalue = [1, 1]"] ;
393 -> 394 ;
395 [label="entropy = 0.0\nsamples = 1\nvalue = [1, 0]"] ;
394 -> 395 ;
396 [label="entropy = 0.0\nsamples = 1\nvalue = [0, 1]"] ;
394 -> 396 ;
397 [label="entropy = 0.0\nsamples = 5\nvalue = [5, 0]"] ;
393 -> 397 ;
398 [label="entropy = 0.0\nsamples = 1\nvalue = [0, 1]"] ;
392 -> 398 ;
399 [label="entropy = 0.0\nsamples = 1\nvalue = [0, 1]"] ;
389 -> 399 ;
400 [label="Age <= 3.5\nentropy = 0.258\nsamples = 23\nvalue = [22, 1]"] ;
308 -> 400 ;
401 [label="Age <= 2.5\nentropy = 0.722\nsamples = 5\nvalue = [4, 1]"] ;
400 -> 401 ;
402 [label="entropy = 0.0\nsamples = 4\nvalue = [4, 0]"] ;
401 -> 402 ;
403 [label="entropy = 0.0\nsamples = 1\nvalue = [0, 1]"] ;
401 -> 403 ;
404 [label="entropy = 0.0\nsamples = 18\nvalue = [18, 0]"] ;
400 -> 404 ;
}
